FANN_FLO_2.1
num_layers=3
learning_rate=0.700000
connection_rate=1.000000
network_type=0
learning_momentum=0.000000
training_algorithm=2
train_error_function=1
train_stop_function=0
cascade_output_change_fraction=0.010000
quickprop_decay=-0.000100
quickprop_mu=1.750000
rprop_increase_factor=1.200000
rprop_decrease_factor=0.500000
rprop_delta_min=0.000000
rprop_delta_max=50.000000
rprop_delta_zero=0.100000
cascade_output_stagnation_epochs=12
cascade_candidate_change_fraction=0.010000
cascade_candidate_stagnation_epochs=12
cascade_max_out_epochs=150
cascade_max_cand_epochs=150
cascade_num_candidate_groups=2
bit_fail_limit=3.49999999999999977796e-01
cascade_candidate_limit=1.00000000000000000000e+03
cascade_weight_multiplier=4.00000000000000022204e-01
cascade_activation_functions_count=10
cascade_activation_functions=3 5 7 8 10 11 14 15 16 17 
cascade_activation_steepnesses_count=4
cascade_activation_steepnesses=2.50000000000000000000e-01 5.00000000000000000000e-01 7.50000000000000000000e-01 1.00000000000000000000e+00 
layer_sizes=3 5 2 
scale_included=0
neurons (num_inputs, activation_function, activation_steepness)=(0, 0, 0.00000000000000000000e+00) (0, 0, 0.00000000000000000000e+00) (0, 0, 0.00000000000000000000e+00) (3, 4, 5.00000000000000000000e-01) (3, 4, 5.00000000000000000000e-01) (3, 4, 5.00000000000000000000e-01) (3, 4, 5.00000000000000000000e-01) (0, 0, 0.00000000000000000000e+00) (5, 14, 5.00000000000000000000e-01) (0, 14, 0.00000000000000000000e+00) 
connections (connected_to_neuron, weight)=(0, 3.51752352493144126999e-01) (1, 2.76543494837618863968e-01) (2, 2.93706130760050809769e-01) (0, 1.33894538244314831310e+00) (1, 1.29082720836706799084e+00) (2, 1.34987180790014904552e+00) (0, 1.29508010407992046886e+00) (1, 1.19603466352530163341e+00) (2, 1.17519649973221462780e+00) (0, 3.36961325781680198777e-01) (1, 3.30257621186114402878e-01) (2, 3.54385983722544761765e-01) (3, 1.24444697907276791149e+00) (4, 1.33565364142962139660e+00) (5, 1.27890071382828396374e+00) (6, 1.24573116859503429943e+00) (7, 1.17909985890694302135e+00) 
